svm_type c_svc
kernel_type rbf
gamma 0.5
nr_class 2
total_sv 211
rho 13.917234796918999
label 0 1
probA -20.900211660817078
probB 18.01190122287136
nr_sv 105 106
SV
10.0 0:0.5973338975878121 1:0.5241847013064725 2:0.5431152477415823 3:0.6146165285744636 4:0.4043471312130414 5:0.44163552429105296 
10.0 0:0.5988150655945832 1:0.5244838934875835 2:0.5455789761839583 3:0.6135542808582961 4:0.4046667732140003 5:0.4425148384260277 
10.0 0:0.5969107067287347 1:0.5244838934875835 2:0.5455789761839583 3:0.6135542808582961 4:0.4056256992168771 5:0.44075621015607824 
10.0 0:0.5765975454930173 1:0.5267777002094345 2:0.5521489186969614 3:0.5906097301890801 4:0.4094614032283842 5:0.44295449549351507 
10.0 0:0.579983072365637 1:0.5272763538446196 2:0.5480427046263345 3:0.596770766942851 4:0.4091417612274253 5:0.44317432402725876 
10.0 0:0.5808294540837918 1:0.5259798543931385 2:0.5480427046263345 3:0.597620565115785 4:0.40722390922167173 5:0.4469114091009013 
10.0 0:0.5842149809564113 1:0.5270768923905456 2:0.5455789761839583 3:0.6003824091778203 4:0.40802301422406906 5:0.44317432402725876 
10.0 0:0.5933135844265763 1:0.5250822778498055 2:0.5455789761839583 3:0.609092840450393 4:0.40498641521495926 5:0.4427346669597714 
10.0 0:0.5962759204401185 1:0.5249825471227685 2:0.5469477142075007 3:0.6103675377097939 4:0.40658462521975386 5:0.44097603868982194 
10.0 0:0.5950063478628862 1:0.5246833549416575 2:0.5442102381604161 3:0.6097301890800935 4:0.4067444462202333 5:0.44295449549351507 
10.0 0:0.5863309352517986 1:0.5084272464346266 2:0.5458527237886669 3:0.6073932441045252 4:0.3912418091737254 5:0.44669158056715763 
10.0 0:0.5901396529834956 1:0.5163059738705496 2:0.5576238707911306 3:0.6078181431909921 4:0.38117308614351925 5:0.44515278083095183 
10.0 0:0.6180702496826068 1:0.5171038196868455 2:0.544757733369833 3:0.6458466114297854 4:0.40594534121783604 5:0.4442734666959771 
10.0 0:0.6189166314007617 1:0.5229879325820285 2:0.5464002189980838 3:0.6345867856384109 4:0.39939268019817803 5:0.4458122664321829 
10.0 0:0.6132035548032162 1:0.5197965493168445 2:0.5439364905557076 3:0.6358614828978117 4:0.4085024772255074 5:0.4453726093646955 
10.0 0:0.6151079136690647 1:0.5226887404009175 2:0.5450314809745415 3:0.6318249415763756 4:0.4027489212082468 5:0.4447131237634645 
10.0 0:0.6125687685146001 1:0.5231873940361025 2:0.5458527237886669 3:0.6282132993414065 4:0.40322838420968515 5:0.4436139810947461 
10.0 0:0.6098180279305967 1:0.5233868554901765 2:0.5461264713933753 3:0.6239643084767368 4:0.403867668211603 5:0.4438338096284898 
10.0 0:0.6022005924672027 1:0.5231873940361025 2:0.5461264713933753 3:0.6199277671553006 4:0.40354802621064406 5:0.44295449549351507 
10.0 0:0.5992382564536606 1:0.5245836242146206 2:0.5425677525321654 3:0.6135542808582961 4:0.4061051622183155 5:0.44229500989228404 
10.0 0:0.5990266610241218 1:0.5247830856686945 2:0.5431152477415823 3:0.6146165285744636 4:0.40530605721591817 5:0.4414156957573093 
10.0 0:0.5918324164198053 1:0.5230876633090655 2:0.5477689570216261 3:0.6063309963883577 4:0.40930158222790475 5:0.44207518135854035 
10.0 0:0.6155311045281422 1:0.5165054353246236 2:0.571584998631262 3:0.6254514552793712 4:0.403867668211603 5:0.4425148384260277 
10.0 0:0.5895048666948793 1:0.5262790465742495 2:0.5472214618122091 3:0.602931803696622 4:0.40754355122263064 5:0.44295449549351507 
10.0 0:0.5971223021582733 1:0.5254812007579536 2:0.5433889953462907 3:0.6114297854259614 4:0.40658462521975386 5:0.44229500989228404 
10.0 0:0.5964875158696572 1:0.5238855091253615 2:0.5455789761839583 3:0.6122795835988952 4:0.40626498321879495 5:0.44207518135854035 
10.0 0:0.6138383410918324 1:0.5235863169442505 2:0.5461264713933753 3:0.6280008497981729 4:0.4046667732140003 5:0.4449329522972082 
10.0 0:0.6148963182395261 1:0.5234865862172136 2:0.5450314809745415 3:0.6273635011684725 4:0.4033882052101646 5:0.4447131237634645 
1.532526232245509 0:0.6132035548032162 1:0.5232871247631395 2:0.5477689570216261 3:0.6277884002549394 4:0.4030685632092057 5:0.44669158056715763 
10.0 0:0.6034701650444351 1:0.5244838934875835 2:0.5444839857651246 3:0.6150414276609305 4:0.4057855202173566 5:0.4425148384260277 
10.0 0:0.6009310198899703 1:0.5241847013064725 2:0.5455789761839583 3:0.616103675377098 4:0.403867668211603 5:0.44097603868982194 
10.0 0:0.598180279305967 1:0.5241847013064725 2:0.544757733369833 3:0.6141916294879965 4:0.40418731021256193 5:0.44229500989228404 
10.0 0:0.5986034701650444 1:0.5248828163957315 2:0.5431152477415823 3:0.6122795835988952 4:0.4054658782163976 5:0.44119586722356563 
10.0 0:0.5988150655945832 1:0.5238855091253615 2:0.5466739666027922 3:0.6135542808582961 4:0.4054658782163976 5:0.4436139810947461 
10.0 0:0.5958527295810411 1:0.5250822778498055 2:0.5439364905557076 3:0.6110048863394943 4:0.4051462362154387 5:0.44295449549351507 
10.0 0:0.6138383410918324 1:0.5226887404009175 2:0.5464002189980838 3:0.6322498406628426 4:0.40051142720153426 5:0.4436139810947461 
10.0 0:0.6163774862462971 1:0.5248828163957315 2:0.5461264713933753 3:0.6260888039090716 4:0.4024292792072878 5:0.4436139810947461 
10.0 0:0.6148963182395261 1:0.5227884711279546 2:0.5436627429509991 3:0.6269386020820055 4:0.4024292792072878 5:0.4444932952297208 
10.0 0:0.6104528142192128 1:0.5242844320335095 2:0.548316452231043 3:0.6260888039090716 4:0.4030685632092057 5:0.44207518135854035 
10.0 0:0.6053745239102836 1:0.5234865862172136 2:0.5461264713933753 3:0.6222647121308689 4:0.4027489212082468 5:0.44317432402725876 
10.0 0:0.6047397376216673 1:0.5230876633090655 2:0.5455789761839583 3:0.6212024644147015 4:0.4030685632092057 5:0.4436139810947461 
10.0 0:0.6032585696148963 1:0.5233868554901765 2:0.54174650971804 3:0.6175908221797323 4:0.4037078472111235 5:0.4449329522972082 
10.0 0:0.5986034701650444 1:0.5241847013064725 2:0.5411990145086231 3:0.6150414276609305 4:0.4048265942144798 5:0.44163552429105296 
10.0 0:0.596699111299196 1:0.5249825471227685 2:0.5425677525321654 3:0.6127044826853623 4:0.4054658782163976 5:0.4425148384260277 
10.0 0:0.5958527295810411 1:0.5232871247631395 2:0.5422940049274568 3:0.6069683450180582 4:0.38852485216557453 5:0.44603209496592655 
10.0 0:0.5964875158696572 1:0.5250822778498055 2:0.5387352860662469 3:0.6133418313150627 4:0.4054658782163976 5:0.44207518135854035 
10.0 0:0.5945831570038087 1:0.5252817393038796 2:0.5420202573227484 3:0.60951773953686 4:0.4061051622183155 5:0.4425148384260277 
10.0 0:0.5969107067287347 1:0.5254812007579536 2:0.5409252669039146 3:0.6131293817718292 4:0.4061051622183155 5:0.44119586722356563 
10.0 0:0.596699111299196 1:0.5253814700309165 2:0.5406515192992062 3:0.6127044826853623 4:0.4064248042192744 5:0.4405363816223346 
10.0 0:0.5956411341515023 1:0.5257803929390645 2:0.5422940049274568 3:0.6116422349691948 4:0.4064248042192744 5:0.4405363816223346 
10.0 0:0.5969107067287347 1:0.5253814700309165 2:0.5422940049274568 3:0.6122795835988952 4:0.4070640882211923 5:0.44163552429105296 
10.0 0:0.5971223021582733 1:0.5245836242146206 2:0.5436627429509991 3:0.6120671340556618 4:0.40594534121783604 5:0.4433941525610024 
10.0 0:0.605797714769361 1:0.5250822778498055 2:0.5368190528332877 3:0.6150414276609305 4:0.40802301422406906 5:0.44207518135854035 
10.0 0:0.5975454930173508 1:0.5246833549416575 2:0.5425677525321654 3:0.6135542808582961 4:0.4046667732140003 5:0.44207518135854035 
10.0 0:0.5964875158696572 1:0.5255809314849905 2:0.5414727621133315 3:0.6112173358827279 4:0.4070640882211923 5:0.44229500989228404 
10.0 0:0.5983918747355057 1:0.5265782387553605 2:0.5428415001368738 3:0.7556830252814957 4:0.3573597570720793 5:0.4552648933831611 
10.0 0:0.5996614473127381 1:0.5250822778498055 2:0.5458527237886669 3:0.6114297854259614 4:0.4054658782163976 5:0.4425148384260277 
10.0 0:0.6002962336013542 1:0.5256806622120275 2:0.5433889953462907 3:0.6122795835988952 4:0.4064248042192744 5:0.44229500989228404 
10.0 0:0.5971223021582733 1:0.5249825471227685 2:0.5428415001368738 3:0.6133418313150627 4:0.4054658782163976 5:0.44207518135854035 
10.0 0:0.5960643250105798 1:0.5248828163957315 2:0.5431152477415823 3:0.6127044826853623 4:0.4056256992168771 5:0.44185535282479665 
10.0 0:0.5952179432924248 1:0.5255809314849905 2:0.5403777716944976 3:0.6122795835988952 4:0.40754355122263064 5:0.44119586722356563 
10.0 0:0.596699111299196 1:0.5255809314849905 2:0.5420202573227484 3:0.6127044826853623 4:0.4057855202173566 5:0.44097603868982194 
10.0 0:0.5977570884468896 1:0.5256806622120275 2:0.54174650971804 3:0.6131293817718292 4:0.4061051622183155 5:0.4414156957573093 
10.0 0:0.5945831570038087 1:0.5248828163957315 2:0.5439364905557076 3:0.609942638623327 4:0.40530605721591817 5:0.44295449549351507 
10.0 0:0.5956411341515023 1:0.5241847013064725 2:0.544757733369833 3:0.6122795835988952 4:0.4046667732140003 5:0.44295449549351507 
10.0 0:0.5969107067287347 1:0.5246833549416575 2:0.5411990145086231 3:0.6124920331421287 4:0.40498641521495926 5:0.44207518135854035 
8.562426345673444 0:0.5950063478628862 1:0.5250822778498055 2:0.5398302764850808 3:0.6124920331421287 4:0.4046667732140003 5:0.4427346669597714 
10.0 0:0.5983918747355057 1:0.5246833549416575 2:0.5453052285792499 3:0.6133418313150627 4:0.4061051622183155 5:0.4425148384260277 
10.0 0:0.5973338975878121 1:0.5254812007579536 2:0.5458527237886669 3:0.6122795835988952 4:0.4051462362154387 5:0.44075621015607824 
10.0 0:0.5964875158696572 1:0.5251820085768425 2:0.5431152477415823 3:0.6127044826853623 4:0.4056256992168771 5:0.44119586722356563 
10.0 0:0.5990266610241218 1:0.5244838934875835 2:0.5444839857651246 3:0.6129169322285957 4:0.40498641521495926 5:0.4433941525610024 
10.0 0:0.5977570884468896 1:0.5243841627605466 2:0.5433889953462907 3:0.6135542808582961 4:0.4054658782163976 5:0.44229500989228404 
10.0 0:0.5983918747355057 1:0.5258801236661015 2:0.5422940049274568 3:0.6114297854259614 4:0.4051462362154387 5:0.4392174104198725 
10.0 0:0.5958527295810411 1:0.5253814700309165 2:0.5422940049274568 3:0.6105799872530274 4:0.40594534121783604 5:0.4414156957573093 
10.0 0:0.5964875158696572 1:0.5248828163957315 2:0.5403777716944976 3:0.6154663267473975 4:0.40658462521975386 5:0.4405363816223346 
10.0 0:0.5988150655945832 1:0.5250822778498055 2:0.5428415001368738 3:0.6105799872530274 4:0.40418731021256193 5:0.4436139810947461 
10.0 0:0.5986034701650444 1:0.5241847013064725 2:0.5439364905557076 3:0.6116422349691948 4:0.40498641521495926 5:0.4425148384260277 
10.0 0:0.5988150655945832 1:0.5239852398523985 2:0.5480427046263345 3:0.6144040790312301 4:0.4056256992168771 5:0.44207518135854035 
10.0 0:0.5992382564536606 1:0.5201954722249925 2:0.5477689570216261 3:0.6114297854259614 4:0.4056256992168771 5:0.4414156957573093 
10.0 0:0.5778671180702497 1:0.5179016655031415 2:0.517930468108404 3:0.591884427448481 4:0.3992328591976986 5:0.42778632666520117 
10.0 0:0.577655522640711 1:0.5226887404009175 2:0.5433889953462907 3:0.5920968769917144 4:0.4078631932235896 5:0.4302044405363816 
10.0 0:0.5926787981379602 1:0.5288720454772116 2:0.5573501231864221 3:0.6131293817718292 4:0.4585264503755794 5:0.3734886788305122 
10.0 0:0.5941599661447313 1:0.5260795851201755 2:0.5436627429509991 3:0.6084554918206926 4:0.40722390922167173 5:0.44163552429105296 
10.0 0:0.5952179432924248 1:0.5253814700309165 2:0.5425677525321654 3:0.6112173358827279 4:0.40802301422406906 5:0.4414156957573093 
10.0 0:0.5962759204401185 1:0.5242844320335095 2:0.5450314809745415 3:0.6129169322285957 4:0.4040274892120825 5:0.44185535282479665 
10.0 0:0.5979686838764283 1:0.5244838934875835 2:0.5439364905557076 3:0.6133418313150627 4:0.4054658782163976 5:0.44185535282479665 
10.0 0:0.5971223021582733 1:0.5246833549416575 2:0.5425677525321654 3:0.6135542808582961 4:0.4057855202173566 5:0.44185535282479665 
10.0 0:0.598180279305967 1:0.5244838934875835 2:0.5455789761839583 3:0.6139791799447631 4:0.4043471312130414 5:0.44185535282479665 
10.0 0:0.5971223021582733 1:0.5242844320335095 2:0.5420202573227484 3:0.6135542808582961 4:0.40530605721591817 5:0.44207518135854035 
10.0 0:0.5992382564536606 1:0.5242844320335095 2:0.5458527237886669 3:0.6141916294879965 4:0.403867668211603 5:0.4433941525610024 
10.0 0:0.5979686838764283 1:0.5249825471227685 2:0.5442102381604161 3:0.6135542808582961 4:0.4046667732140003 5:0.44207518135854035 
10.0 0:0.5977570884468896 1:0.5244838934875835 2:0.5455789761839583 3:0.6135542808582961 4:0.4051462362154387 5:0.44163552429105296 
10.0 0:0.5988150655945832 1:0.5243841627605466 2:0.5474952094169176 3:0.6131293817718292 4:0.4046667732140003 5:0.4425148384260277 
10.0 0:0.5971223021582733 1:0.5248828163957315 2:0.5442102381604161 3:0.6129169322285957 4:0.4056256992168771 5:0.44097603868982194 
10.0 0:0.5962759204401185 1:0.5247830856686945 2:0.5453052285792499 3:0.6129169322285957 4:0.40530605721591817 5:0.4414156957573093 
10.0 0:0.5962759204401185 1:0.5251820085768425 2:0.5425677525321654 3:0.6124920331421287 4:0.4048265942144798 5:0.44163552429105296 
10.0 0:0.5977570884468896 1:0.5247830856686945 2:0.5431152477415823 3:0.6139791799447631 4:0.40530605721591817 5:0.44163552429105296 
10.0 0:0.5964875158696572 1:0.5244838934875835 2:0.5433889953462907 3:0.6137667304015296 4:0.40498641521495926 5:0.4414156957573093 
10.0 0:0.5941599661447313 1:0.5139124364216615 2:0.5444839857651246 3:0.6118546845124283 4:0.4070640882211923 5:0.4444932952297208 
10.0 0:0.5956411341515023 1:0.5225890096738806 2:0.5425677525321654 3:0.6124920331421287 4:0.40450695221352084 5:0.4427346669597714 
10.0 0:0.592890393567499 1:0.4843921412187095 2:0.5505064330687106 3:0.6169534735500318 4:0.35240530605721593 5:0.44295449549351507 
10.0 0:0.59437156157427 1:0.5186995113194375 2:0.544757733369833 3:0.6137667304015296 4:0.3934793031804379 5:0.4383380962848978 
10.0 0:0.5952179432924248 1:0.4964595591901865 2:0.5392827812756639 3:0.6116422349691948 4:0.38468914815406746 5:0.44075621015607824 
0.16612817512356315 0:0.5962759204401185 1:0.5252817393038796 2:0.5422940049274568 3:0.6139791799447631 4:0.40722390922167173 5:0.4403165530885909 
10.0 0:0.5956411341515023 1:0.5240849705794355 2:0.5439364905557076 3:0.6110048863394943 4:0.4046667732140003 5:0.4440536381622335 
-10.0 0:0.5780787134997885 1:0.5330607360127655 2:0.5387352860662469 3:0.6466964096027193 4:0.40418731021256193 5:0.4273466695977138 
-10.0 0:0.6694879390605163 1:0.5172035504138826 2:0.5606350944429236 3:0.7701295942213724 4:0.37414096212242287 5:0.4653770059353704 
-10.0 0:0.7456622936944562 1:0.4945646753764835 2:0.5485901998357514 3:0.699383896324623 4:0.3787757711363273 5:0.44097603868982194 
-10.0 0:0.6652560304697418 1:0.4989528273661115 2:0.48261702710101284 3:0.6802634374336095 4:0.38325075914975226 5:0.35876016706968566 
-10.0 0:0.5653829877274651 1:0.5410391941757255 2:0.4845332603339721 3:0.5088166560441895 4:0.4300783122902349 5:0.40888107276324465 
-10.0 0:0.5146000846381719 1:0.5448289618031316 2:0.5505064330687106 3:0.5513065646908859 4:0.4219274412657823 5:0.46185974939547153 
-10.0 0:0.5994498518831993 1:0.5244838934875835 2:0.5359978100191624 3:0.632462290206076 4:0.39987214319961645 5:0.4348208397449989 
-10.0 0:0.5664409648751587 1:0.5217911638575845 2:0.5474952094169176 3:0.60951773953686 4:0.37797666613393 5:0.43635963948120465 
-10.0 0:0.5713076597545493 1:0.5307669292909145 2:0.5461264713933753 3:0.5751009135330359 4:0.42080869426242606 5:0.4458122664321829 
-3.8093472384631597 0:0.6220905628438426 1:0.5451281539842425 2:0.8390364084314262 3:0.4707881878053962 4:0.4615630493846892 5:0.7656627830292372 
-10.0 0:0.5721540414727042 1:0.5119178218809215 2:0.5557076375581713 3:0.5047801147227533 4:0.3576793990730382 5:0.44713123763464496 
-10.0 0:0.3793906051629285 1:0.5429340779894285 2:0.4358061866958664 3:0.41363926067558954 4:0.42080869426242606 5:0.41020004396570675 
-10.0 0:0.5736352094794752 1:0.5113194375186995 2:0.279222556802628 3:0.6286381984278734 4:0.38117308614351925 5:0.2901736645416575 
-10.0 0:0.6481168006771054 1:0.5119178218809215 2:0.5762387079113058 3:0.6876991714467814 4:0.3722231101166693 5:0.4853814025060453 
-10.0 0:0.6540414727041896 1:0.5236860476712876 2:0.5693950177935944 3:0.6649670703207988 4:0.38868467316605404 5:0.4708727192789624 
-10.0 0:0.7469318662716885 1:0.4996509424553705 2:0.4483985765124555 3:0.7592946675164648 4:0.34840978104522935 5:0.3899758188612882 
-10.0 0:0.507617435463394 1:0.5388451181809115 2:0.5067068163153572 3:0.5661780327172297 4:0.4073837302221512 5:0.3987689602110354 
-10.0 0:0.5755395683453237 1:0.5319636980153585 2:0.4998631261976458 3:0.5022307202039515 4:0.46443982739331946 5:0.42668718399648276 
-10.0 0:0.579983072365637 1:0.5211927794953625 2:0.5655625513276759 3:0.5942213724240493 4:0.3939587661818763 5:0.4614200923279842 
-10.0 0:0.6002962336013542 1:0.5510122668794255 2:0.4015877361073091 3:0.5829615466326747 4:0.37350167812050505 5:0.5900197845680369 
-10.0 0:0.600507829030893 1:0.5205943951331405 2:0.5502326854640022 3:0.6107924367962609 4:0.384529327153588 5:0.4438338096284898 
-10.0 0:0.6091832416419806 1:0.5093248229779596 2:0.7429509991787572 3:0.6173783726364989 4:0.33114911299344735 5:0.5939766981754232 
-7.746186484254807 0:0.5067710537452391 1:0.5831255609853396 2:0.3274021352313167 3:0.4809857658806034 4:0.5501038836503116 5:0.20246207957792922 
-10.0 0:0.6051629284807448 1:0.5694624513812706 2:0.691486449493567 3:0.656681538134693 4:0.4677960684033882 5:0.6267311497032315 
-10.0 0:0.605797714769361 1:0.5239852398523985 2:0.5819874076101834 3:0.6212024644147015 4:0.4069042672207128 5:0.46185974939547153 
-10.0 0:0.6182818451121456 1:0.5237857783983245 2:0.5485901998357514 3:0.6362863819842788 4:0.4043471312130414 5:0.44603209496592655 
-10.0 0:0.6195514176893779 1:0.5237857783983245 2:0.5436627429509991 3:0.6341618865519439 4:0.4000319642000959 5:0.4440536381622335 
-10.0 0:0.6193398222598392 1:0.5240849705794355 2:0.5458527237886669 3:0.6356490333545783 4:0.403867668211603 5:0.4436139810947461 
-10.0 0:0.5873889123994922 1:0.5210930487683255 2:0.5923898165891048 3:0.6135542808582961 4:0.4037078472111235 5:0.4469114091009013 
-10.0 0:0.4822259839187474 1:0.5262790465742495 2:0.70161511086778 3:0.5493945188017846 4:0.3851686111555058 5:0.6711365135194548 
-10.0 0:0.515234870926788 1:0.5538047272364616 2:0.6767040788393102 3:0.49904397705544934 4:0.4327952692983858 5:0.453286436579468 
-10.0 0:0.5160812526449429 1:0.5377480801835045 2:0.3583356145633726 3:0.509029105587423 4:0.42624260827872784 5:0.34227302703890966 
-10.0 0:0.5886584849767245 1:0.4801037199561185 2:0.395565288803723 3:0.6067558954748248 4:0.38628735815886206 5:0.15717740162673116 
-10.0 0:0.6862039779940753 1:0.5593896479505336 2:0.8165891048453326 3:0.6144040790312301 4:0.40019178520057536 5:0.5242910529786766 
-10.0 0:0.5918324164198053 1:0.4907749077490775 2:0.544757733369833 3:0.5942213724240493 4:0.5408342656225028 5:0.4546054077819301 
-10.0 0:0.41261108760050785 1:0.4090954423057744 2:0.5458527237886669 3:0.5942213724240493 4:0.26274572478823716 5:0.4341613541437679 
-10.0 0:0.7158273381294964 1:0.5477211528872046 2:0.5502326854640022 3:0.7051200339919269 4:0.5310851845932556 5:0.45064849417454383 
-10.0 0:0.6191282268303004 1:0.6352847312256906 2:0.5532439091157952 3:0.6594433821967283 4:0.6073198018219594 5:0.4504286656408002 
-10.0 0:0.567710537452391 1:0.4168744390146604 2:0.5359978100191624 3:0.5744635649033355 4:0.13840498641521495 5:0.4330622114750495 
-10.0 0:0.6030469741853576 1:0.5762441408197866 2:0.5496851902545853 3:0.657531336307627 4:0.6074796228224388 5:0.44713123763464496 
-10.0 0:0.572365636902243 1:0.43153485588909946 2:0.5370928004379961 3:0.5893350329296791 4:0.22934313568802941 5:0.43570015387997363 
-10.0 0:0.6168006771053746 1:0.3927396030717064 2:0.5444839857651246 3:0.6054811982154238 4:0.6536678919610037 5:0.4502088371070565 
-10.0 0:0.5801946677951756 1:0.4646454572653835 2:0.5414727621133315 3:0.6018695559804547 4:0.4088221192264664 5:0.44779072323587604 
-10.0 0:0.6013542107490478 1:0.5233868554901765 2:0.5488639474404599 3:0.6320373911196091 4:0.4006712482020137 5:0.4378984392174104 
-10.0 0:0.5704612780363945 1:0.5324623516505436 2:0.5488639474404599 3:0.6237518589335033 4:0.40019178520057536 5:0.44845020883710707 
-10.0 0:0.6106644096487516 1:0.5226887404009175 2:0.5450314809745415 3:0.6658168684937328 4:0.3875659261626978 5:0.4458122664321829 
-10.0 0:0.6692763436309775 1:0.5135135135135135 2:0.5499589378592937 3:0.543870830677714 4:0.42352565127057695 5:0.44713123763464496 
-10.0 0:0.5414727041895895 1:0.5432332701705396 2:0.5491376950451684 3:0.5687274272360314 4:0.43055777529167333 5:0.44515278083095183 
-10.0 0:0.6026237833262802 1:0.5222898174927695 2:0.5505064330687106 3:0.6169534735500318 4:0.403867668211603 5:0.44757089470213235 
-10.0 0:0.5969107067287347 1:0.5243841627605466 2:0.548316452231043 3:0.6118546845124283 4:0.40498641521495926 5:0.4449329522972082 
-10.0 0:0.6479052052475667 1:0.5126159369701805 2:0.5600875992335067 3:0.6583811344805609 4:0.3925203771775611 5:0.45306660804572435 
-10.0 0:0.6013542107490478 1:0.5235863169442505 2:0.5472214618122091 3:0.6133418313150627 4:0.4054658782163976 5:0.4414156957573093 
-10.0 0:0.6593313584426577 1:0.5134137827864765 2:0.5526964139063784 3:0.6097301890800935 4:0.40322838420968515 5:0.43613981094746096 
-10.0 0:0.5734236140499365 1:0.5316645058342475 2:0.5474952094169176 3:0.5986828128319525 4:0.4099408662298226 5:0.4449329522972082 
-10.0 0:0.5120609394837071 1:0.5395432332701705 2:0.5379140432521216 3:0.6048438495857233 4:0.4056256992168771 5:0.43723895361617937 
-10.0 0:0.7005924672027084 1:0.4867856786675975 2:0.53462907199562 3:0.5937964733375823 4:0.23094134569282404 5:0.4187733567817103 
-10.0 0:0.6159542953872197 1:0.5574947641368305 2:0.5474952094169176 3:0.6568939876779265 4:0.43599168930797505 5:0.4436139810947461 
-10.0 0:0.5363944138806602 1:0.5251820085768425 2:0.5428415001368738 3:0.5901848311026131 4:0.4064248042192744 5:0.4444932952297208 
-10.0 0:0.5926787981379602 1:0.5265782387553605 2:0.5442102381604161 3:0.6135542808582961 4:0.4069042672207128 5:0.4453726093646955 
-4.356963882966586 0:1.0 1:0.5639772613942355 2:0.5108130303859841 3:0.6110048863394943 4:0.40530605721591817 5:0.44515278083095183 
-10.0 0:0.550994498518832 1:0.5340580432831356 2:0.5480427046263345 3:0.5897599320161462 4:0.41409621224228865 5:0.4447131237634645 
-10.0 0:0.5922556072788828 1:0.5267777002094345 2:0.5488639474404599 3:0.615253877204164 4:0.4061051622183155 5:0.4444932952297208 
-10.0 0:0.9559881506559458 1:0.4647451879924205 2:0.5499589378592937 3:0.7212661992776715 4:0.37509988812529965 5:0.4453726093646955 
-10.0 0:0.6115107913669064 1:0.5215917024035105 2:0.5461264713933753 3:0.6158912258338645 4:0.403867668211603 5:0.44229500989228404 
-10.0 0:0.7232331781633516 1:0.5162062431435125 2:0.5420202573227484 3:0.6445719141703845 4:0.40147035320441105 5:0.44119586722356563 
-10.0 0:0.6191282268303004 1:0.5261793158472126 2:0.5173829728989872 3:0.6150414276609305 4:0.399712322199137 5:0.43965706748735983 
-10.0 0:0.6178586542530682 1:0.5239852398523985 2:0.568026279770052 3:0.6443594646271511 4:0.3904427041713281 5:0.4502088371070565 
-10.0 0:0.67879813796022 1:0.5078288620724045 2:0.5480427046263345 3:0.6717654557042703 4:0.41409621224228865 5:0.4414156957573093 
-10.0 0:0.6576385950063479 1:0.5202952029520295 2:0.5431152477415823 3:0.6626301253452305 4:0.3966757231900272 5:0.43526049681248624 
-10.0 0:0.5844265763859501 1:0.5241847013064725 2:0.5023268546400219 3:0.6303377947737412 4:0.3945980501837941 5:0.41151901516816886 
-10.0 0:0.6074904782056707 1:0.5420365014460955 2:0.4100739118532713 3:0.5360101975780752 4:0.4270417132811251 5:0.43196306880633106 
-10.0 0:0.6601777401608125 1:0.5160067816894385 2:0.5940323022173556 3:0.6694285107287019 4:0.3853284321559853 5:0.4798856891624533 
-10.0 0:0.6157426999576809 1:0.5114191682457365 2:0.43115247741582263 3:0.645209262800085 4:0.3985935751957807 5:0.3442514838426028 
-10.0 0:0.5954295387219636 1:0.5222898174927695 2:0.5833561456337257 3:0.6020820055236881 4:0.4137765702413297 5:0.3912947900637503 
-10.0 0:0.5622090562843842 1:0.4744190685150095 2:0.6961401587736107 3:0.6815381346930104 4:0.3218794949656385 5:0.5291272807210375 
-10.0 0:0.56622936944562 1:0.5627804926697916 2:0.31015603613468384 3:0.621414913957935 4:0.4415854243247563 5:0.29962629149263575 
-10.0 0:0.5141768937790944 1:0.5470230377979456 2:0.44456611004653707 3:0.5895474824729127 4:0.3784561291353684 5:0.4950538579907672 
-10.0 0:0.585272958104105 1:0.5256806622120275 2:0.5453052285792499 3:0.6067558954748248 4:0.4048265942144798 5:0.44185535282479665 
-10.0 0:0.6066440964875158 1:0.5240849705794355 2:0.5444839857651246 3:0.6167410240067984 4:0.4115390762346172 5:0.43613981094746096 
-10.0 0:0.7014388489208633 1:0.5211927794953625 2:0.571037503421845 3:0.7061822817080943 4:0.39331948217995844 5:0.4605407781930094 
-10.0 0:0.7079983072365637 1:0.4989528273661115 2:0.4557897618395839 3:0.7004461440407903 4:0.384529327153588 5:0.38052319191031 
-10.0 0:0.4212865002115954 1:0.5402413483594295 2:0.567478784560635 3:0.5678776290630975 4:0.41665334824996003 5:0.33457902835788084 
-10.0 0:0.7666102412187896 1:0.5098234766131445 2:0.7372022994798796 3:0.44805608667941366 4:0.41473549624420647 5:0.4759287755550671 
-10.0 0:0.6699111299195938 1:0.5076294006183305 2:0.44976731453599783 3:0.6252390057361377 4:0.4033882052101646 5:0.3387557704990108 
-10.0 0:0.5454930173508252 1:0.47501745287723146 2:0.8653161784834382 3:0.598045464202252 4:0.38772574716317726 5:0.520553967905034 
-10.0 0:0.5916208209902666 1:0.5308666600179516 2:0.514919244456611 3:0.6403229233057149 4:0.4129774652389324 5:0.3814025060452847 
-10.0 0:0.5275074058400339 1:0.5275755460257305 2:0.5425677525321654 3:0.5708519226683663 4:0.3987533961962602 5:0.4341613541437679 
-10.0 0:0.5971223021582733 1:0.5264785080283235 2:0.5433889953462907 3:0.6190779689823667 4:0.4064248042192744 5:0.4392174104198725 
-0.730675255328027 0:0.6087600507829031 1:0.25521093048768323 2:0.5450314809745415 3:0.6316124920331422 4:0.1503915614511747 5:0.4350406682787426 
-3.617907892029941 0:0.49830723656369025 1:0.9394634486885409 2:0.5472214618122091 3:0.5787125557680051 4:0.7869586063608758 5:0.46823477687403825 
-10.0 0:0.7177316969953449 1:0.39204148798244737 2:0.5420202573227484 3:0.5644784363713617 4:0.17196739651590218 5:0.4414156957573093 
-10.0 0:0.5412611087600507 1:0.5139124364216615 2:0.5422940049274568 3:0.6146165285744636 4:0.3939587661818763 5:0.4449329522972082 
-10.0 0:0.6385950063478629 1:0.4957614441009275 2:0.5581713660005475 3:0.6503080518376886 4:0.42624260827872784 5:0.45856232138931635 
-10.0 0:0.5452814219212865 1:0.5910042884212626 2:0.5499589378592937 3:0.5746760144465689 4:0.4264024292792073 5:0.44603209496592655 
-10.0 0:0.31633516716038934 1:0.4977560586416675 2:0.5373665480427047 3:0.5024431697471851 4:0.4412657823237974 5:0.4713123763464498 
-10.0 0:0.65065594583157 1:0.5214919716764735 2:0.5474952094169176 3:0.7187168047588698 4:0.395237334185712 5:0.44317432402725876 
-10.0 0:0.27697841726618705 1:0.5611848010371996 2:0.5499589378592937 3:0.6139791799447631 4:0.4064248042192744 5:0.44515278083095183 
-10.0 0:0.7685146000846381 1:0.4998504039094445 2:0.5453052285792499 3:0.7032079881028256 4:0.3861275371583826 5:0.4436139810947461 
-10.0 0:0.6032585696148963 1:0.5249825471227685 2:0.5466739666027922 3:0.6173783726364989 4:0.40594534121783604 5:0.4444932952297208 
-10.0 0:0.44837071519255184 1:0.5506133439712776 2:0.5789761839583903 3:0.6105799872530274 4:0.40594534121783604 5:0.4427346669597714 
-10.0 0:0.6347862886161659 1:0.5207938565872146 2:0.5474952094169176 3:0.6891863182494158 4:0.3945980501837941 5:0.43965706748735983 
-10.0 0:0.6013542107490478 1:0.5252817393038796 2:0.5496851902545853 3:0.6167410240067984 4:0.4056256992168771 5:0.44845020883710707 
-10.0 0:0.6360558611933982 1:0.5199960107709185 2:0.5433889953462907 3:0.6054811982154238 4:0.40802301422406906 5:0.4469114091009013 
-10.0 0:0.59437156157427 1:0.5251820085768425 2:0.5455789761839583 3:0.615678776290631 4:0.4057855202173566 5:0.44317432402725876 
-10.0 0:0.4866694879390605 1:0.5173032811409195 2:0.5392827812756639 3:0.615678776290631 4:0.40418731021256193 5:0.4433941525610024 
-10.0 0:0.6529834955564959 1:0.5258801236661015 2:0.5436627429509991 3:0.6401104737624814 4:0.4054658782163976 5:0.44075621015607824 
